conv1d/kernel:0
(3, 1, 30)
[[[ 2.9250896e-06  1.2484586e-06 -1.7129300e-05  6.8518466e-06
    6.2136878e-03 -2.4606359e-05  5.1947145e-06  1.3717071e-05
   -1.2884782e-05  9.6659842e-06 -3.1009795e-06 -1.4977291e-05
   -1.1922828e-05 -1.4946042e-05  2.3875340e-05 -2.2195149e-05
   -8.8188908e-06 -1.3990715e-05 -1.6617458e-05 -3.7802820e-06
   -5.8018795e-06 -8.8947245e-06  2.1396650e-06  1.8242747e-05
    7.3325346e-06 -1.2233313e-05  7.6434608e-06  5.3471240e-07
   -3.6278693e-06 -7.7538580e-06]]

 [[-5.6963727e-06 -1.1160833e-05 -6.6344501e-06 -4.4631715e-06
    3.7658972e-01 -8.1447661e-06 -1.5525593e-06  1.3327488e-05
    4.9656369e-06  1.1409562e-05 -1.2847895e-05  8.8566312e-06
    8.5595593e-07 -9.7827069e-08 -2.8179502e-06 -3.8926373e-09
   -1.2200722e-05  7.5368428e-07 -3.6728889e-06  8.2044953e-06
   -1.6291704e-05 -4.8070942e-06 -2.8598126e-05  7.7221330e-06
    5.6478102e-06 -2.1123369e-06 -1.3457942e-05  1.3141697e-05
   -1.4894888e-05  2.9236744e-06]]

 [[-8.0583950e-06 -6.9698090e-06  6.8210256e-06  1.6249531e-05
   -1.6573635e-04 -5.8052765e-06 -7.8202538e-07 -2.6382546e-05
   -2.3228207e-05  5.1306993e-06  2.0935186e-06  8.6083619e-06
   -5.7231755e-06 -1.9273888e-05 -8.3590940e-06 -2.5484867e-05
   -2.8759969e-05  1.4649787e-05  1.0476124e-05  7.8419034e-06
   -1.2950949e-05 -9.8548198e-06  1.2738617e-05 -2.6302867e-05
    2.7341579e-05 -8.7834351e-06  1.4810007e-05 -2.1873673e-05
    5.7533252e-06 -1.4283925e-05]]]
conv1d/bias:0
(30,)
[ 0.05363443  0.05265278  0.05177931  0.05206294  0.00344632 -0.00580877
 -0.00635423  0.05252381  0.05237453  0.05242909  0.05167843  0.05281366
 -0.00448736  0.05123388  0.05511249  0.05301302  0.05113871  0.05092916
  0.05342375  0.0536948   0.0530481   0.05024806 -0.00546646 -0.00329628
 -0.00448105 -0.00377145  0.05240056  0.05190443 -0.00180932  0.05332358]
conv1d_1/kernel:0
(3, 30, 64)
[[[ 2.27390956e-06  1.20502245e-05  1.72383225e-05 ... -1.81642408e-05
    2.85401093e-05  2.54195475e-05]
  [-1.45695767e-05 -9.66823063e-06  1.58114253e-05 ... -3.95841853e-05
   -8.44313126e-06 -2.38640678e-06]
  [-2.51858655e-05  3.64494963e-06 -2.77120162e-05 ...  3.97835902e-06
   -6.00009480e-06 -1.75868536e-06]
  ...
  [-1.65840629e-06 -1.54179361e-06 -1.42994959e-05 ...  6.57391229e-06
    1.54621594e-05  2.84143971e-06]
  [ 9.13983240e-06  1.34632783e-05  1.35632490e-07 ...  6.26024939e-06
    1.03900729e-05 -1.73654134e-05]
  [-1.63518780e-05  1.28439151e-05 -3.01566688e-05 ...  3.74529045e-05
    3.23793256e-06 -2.06780824e-05]]

 [[ 2.20053789e-06  2.49222612e-05 -7.30918146e-07 ... -1.51555914e-05
    4.37655626e-06 -1.94463937e-05]
  [ 1.14993909e-05  1.56092246e-05  3.68314977e-06 ...  1.16009396e-05
   -1.84952046e-06  4.47174534e-05]
  [ 4.24284553e-06  2.56827116e-06 -1.76082040e-06 ...  1.49599255e-05
    7.76928118e-06 -1.53557630e-05]
  ...
  [-5.05227035e-06 -5.17975695e-06  5.09168785e-06 ... -3.18106322e-05
    7.30628199e-06  1.54778718e-05]
  [ 1.78593546e-05 -1.73226795e-06  1.13328933e-05 ... -4.31879471e-07
    6.91367677e-06  1.63287696e-05]
  [ 1.27062594e-05 -7.89366095e-06 -8.94715777e-06 ...  2.51342226e-05
   -7.07740219e-06 -9.61756268e-06]]

 [[ 1.08683307e-05 -1.26666519e-05  1.69889972e-07 ... -1.89420280e-05
   -1.27134617e-05  2.88162028e-08]
  [-6.27206100e-06 -9.00619489e-06 -2.48982542e-06 ... -2.17049619e-05
   -1.81480709e-06  1.14018894e-05]
  [-5.58638931e-07  2.74370468e-05 -9.30671376e-07 ...  2.86066643e-06
    2.30774167e-05  3.04740706e-06]
  ...
  [ 1.23036625e-05 -7.53967379e-06 -5.21226411e-06 ...  3.74645751e-05
   -5.76050479e-06  2.21477167e-05]
  [-2.57136580e-05 -7.28960686e-06 -1.12759190e-05 ... -1.96702440e-05
   -1.73187545e-05  1.85409335e-05]
  [-1.72722503e-05  1.13450715e-05  2.22254694e-05 ... -2.31737540e-05
   -1.20266759e-06 -2.70918008e-06]]]
conv1d_1/bias:0
(64,)
[-0.00298453 -0.00218619 -0.00596726 -0.00185328 -0.00527403 -0.00384808
 -0.00752775 -0.00612029  0.00111495 -0.00643033 -0.00153478  0.00109254
 -0.00439951 -0.00606048 -0.00289591 -0.00187544  0.06433393 -0.00557288
 -0.0014787  -0.00630283 -0.00342788 -0.00390065 -0.00278548 -0.00379077
 -0.00389797 -0.00723904 -0.00366763 -0.00417374 -0.00184425 -0.00041522
 -0.00770718 -0.0044343  -0.00112185 -0.00399646 -0.00591379 -0.00041475
 -0.00304692 -0.00828428 -0.0007265   0.00043987 -0.00216853 -0.00105042
  0.00080002 -0.00536001 -0.00595278 -0.00415685  0.00971929 -0.00347619
 -0.00293645 -0.00020418 -0.00173657 -0.00334534 -0.00466192 -0.0017737
 -0.00048205  0.01343616 -0.00285458  0.0094494  -0.00244154 -0.00120925
 -0.00106677  0.02328189 -0.00425201 -0.00584851]
dense/kernel:0
(7168, 128)
[[-0.00147153  0.00113297 -0.01143899 ... -0.00671891  0.00849721
   0.04968157]
 [ 0.02132976 -0.00062387  0.0176454  ... -0.00863903 -0.00884368
  -0.00399764]
 [ 0.02718484 -0.04335392  0.00415189 ...  0.03603917 -0.00915156
   0.01600943]
 ...
 [ 0.07688531  0.01869556 -0.00936151 ...  0.03440954  0.02785539
   0.03078372]
 [ 0.0625929   0.0258363  -0.01312193 ... -0.01233709  0.02512736
   0.06578342]
 [ 0.04637097 -0.00025899  0.05710271 ...  0.01431983 -0.01196436
   0.00684666]]
dense/bias:0
(128,)
[ 0.04271801  0.01238655  0.01527854  0.02490143  0.02022019  0.02679353
  0.03294066 -0.01279612  0.00336241  0.00686864  0.01293094  0.01247513
 -0.00986591  0.06267874 -0.01197669  0.01067611  0.03489791  0.0532587
  0.01950967  0.02126465  0.00443453  0.01372826  0.01942181  0.03754102
  0.01967116  0.00549978  0.01286301  0.00923367  0.01470739  0.01298286
 -0.00206528  0.01149053  0.0223958   0.0163227   0.03026031  0.04874433
  0.04494753 -0.05545001  0.02587898  0.01691124 -0.00570201  0.02709679
  0.01648352 -0.00488173  0.04850011  0.03756593  0.0262323   0.00373894
  0.04255624 -0.01636934  0.01054628  0.01769768  0.03156532 -0.04396201
  0.01416254 -0.001693    0.02477742  0.01467557  0.02666287  0.00831632
  0.04347572  0.01722466  0.01173106  0.014466    0.02032652  0.02965865
 -0.00369093  0.02750668  0.0348045   0.02825508  0.02873559  0.0089904
  0.02835487  0.01361511  0.02424564  0.01401264  0.04402383  0.01318406
  0.00954292  0.0177345   0.02760622  0.00533821  0.00346689  0.01304124
  0.03010749  0.0125987   0.00509521  0.00497048 -0.00129725  0.01302
  0.01316729  0.07557562  0.05144464  0.00302918  0.00116955 -0.01080657
  0.01172003 -0.03320695  0.02278115  0.0200146   0.07555836  0.00930516
  0.02077385  0.01822319  0.02690989  0.01879316  0.02782334 -0.00513705
  0.00770169 -0.00850647  0.02995193 -0.0149589   0.02921091  0.0051824
  0.02346502 -0.01276091  0.00998188  0.0138551   0.00749558  0.02307473
  0.01076905  0.01267037  0.00842431  0.00137024  0.01363989  0.00088137
  0.02944288  0.043603  ]
dense_1/kernel:0
(128, 64)
[[ 0.12045802  0.00531842 -0.07882144 ... -0.05288736 -0.13408698
   0.13256729]
 [-0.1291583  -0.19697551 -0.23058234 ... -0.563434   -0.23291543
   0.03797007]
 [-0.46197912  0.08074834  0.01405881 ... -0.19164757  0.26006052
   0.48209524]
 ...
 [ 0.30560544  0.4035605  -0.01491179 ... -0.03473872  0.05002407
  -0.20633416]
 [-0.04663284 -0.14239962  0.07267994 ... -0.00198066 -0.07074664
   0.1592159 ]
 [-0.13337395 -0.08372527  0.12626657 ...  0.17458467 -0.04317345
  -0.0570733 ]]
dense_1/bias:0
(64,)
[ 0.0343298   0.01943373 -0.00193408  0.0254005   0.01216982  0.0019458
  0.04656951  0.00316999  0.04818676 -0.00873542  0.09469429  0.02974147
 -0.02206117  0.04897023  0.04782929  0.00753836  0.01778313  0.04240555
  0.03044448  0.02615116  0.05629785  0.02005957  0.02791082  0.03279656
  0.06155059  0.03038269 -0.03236485  0.03219567  0.00562458 -0.01859782
  0.00053022  0.01590431  0.          0.03181693  0.05226435  0.04226992
 -0.00061654  0.04615871  0.00565573  0.02466691  0.04630804  0.02220687
  0.01085351 -0.00519893  0.04142793  0.010233    0.00840851  0.02475043
  0.03356055  0.01979655 -0.00310273  0.07300707  0.02572137 -0.01228637
  0.03632015  0.03904872  0.05187942 -0.03438003  0.03112975 -0.03235225
  0.02010092  0.03632321  0.03676571  0.00209243]
dense_2/kernel:0
(64, 40)
[[-0.5207698   0.04808491  0.01136718 ... -0.21364105 -0.27507332
  -0.06441003]
 [-0.24724428 -0.37753442 -0.38426158 ... -0.14072128 -0.27561966
  -0.1853521 ]
 [-0.39328066  0.03073071 -0.3314386  ... -0.06381953 -0.0150068
  -0.3066142 ]
 ...
 [-0.3259116  -0.03319533 -0.15192358 ... -0.21350661 -0.41017073
  -0.367782  ]
 [-0.2834496  -0.5903186   0.05924683 ...  0.09678744 -0.29933986
  -0.04704396]
 [ 0.16392443 -0.20956276 -0.33582294 ... -0.25324914 -0.12625837
  -0.25412232]]
dense_2/bias:0
(40,)
[ 0.02302964  0.00229874 -0.06000781  0.02670225 -0.0929053  -0.05108139
  0.00879522 -0.06091778 -0.009071   -0.00400125 -0.07023548 -0.04886162
 -0.0120143  -0.04139856 -0.01304736 -0.04830465 -0.0480459   0.00925379
 -0.0814643   0.01198896 -0.0167685  -0.04983214 -0.04180313 -0.05273636
 -0.04972406 -0.01497706 -0.01383098 -0.04597233 -0.02305521 -0.04779146
  0.01966038 -0.05469379 -0.045656   -0.06439846 -0.03092391 -0.00423845
 -0.01379375 -0.05272998 -0.05050172 -0.05721122]
