simple_rnn/simple_rnn_cell/kernel:0
(1, 16)
[[-0.94797325 -0.70223176 -0.7404545  -0.5434782  -0.77817893 -0.15540692
  -0.2437727   0.9636822  -0.746913    0.5031659  -0.0985224   1.0480454
  -0.46285945 -0.3003426   0.7813854  -0.22731425]]
simple_rnn/simple_rnn_cell/recurrent_kernel:0
(16, 16)
[[ 1.79256558e-01 -4.43696417e-02  1.91016957e-01  7.98563734e-02
  -2.81399232e-03 -1.74154103e-01  4.16057616e-01  3.22194934e-01
   3.32962453e-01 -3.88963163e-01  4.10660505e-01  6.11998379e-01
  -3.67535442e-01  2.51406968e-01  7.68667310e-02 -4.78243940e-02]
 [-7.34819293e-01  1.15561627e-01 -5.42017579e-01 -3.05815578e-01
   1.08986296e-01 -6.99288025e-02 -1.71565533e-01 -1.77974910e-01
   2.31343329e-01 -2.54524406e-02 -7.68658221e-02  3.43257099e-01
   3.48332897e-02 -3.90676379e-01  1.44211248e-01 -3.09332460e-01]
 [ 3.52218062e-01 -1.58329651e-01 -9.26336180e-03 -2.97703028e-01
  -3.53680402e-01  2.33184472e-01  2.11194560e-01  1.84985176e-01
  -1.57069370e-01 -1.46716252e-01  8.01868830e-03  2.51036465e-01
   4.10267979e-01 -7.65982568e-01 -2.59111255e-01 -4.94605869e-01]
 [ 3.85553390e-01  2.14869544e-01 -2.52513081e-01  3.12642545e-01
  -3.57010156e-01 -3.95157367e-01 -1.89331576e-01  2.01803088e-01
   1.63670287e-01  5.91282248e-02  2.12753341e-01 -4.02080342e-02
  -2.27385219e-02 -1.69148088e-01  1.08453177e-01 -2.04469293e-01]
 [-3.64716291e-01 -1.56421781e-01 -2.30114639e-01  3.46934274e-02
  -6.00642145e-01 -1.23080825e-02  4.19208169e-01  1.21732019e-01
  -1.55546993e-01  2.24601403e-02 -3.97941358e-02  2.88786858e-01
   1.68573350e-01  4.23071921e-01  3.69398177e-01 -1.13466591e-01]
 [ 1.65987909e-01 -3.31473351e-01 -6.22832999e-02  5.36459200e-02
  -2.76874214e-01 -2.86763608e-01 -1.99536324e-01 -5.70608795e-01
   5.28322458e-01 -1.38749987e-01 -3.42836350e-01 -7.28309900e-02
   4.73216921e-01  2.85645157e-01 -3.53475779e-01  4.24355492e-02]
 [-1.79533646e-01  6.91007415e-04 -3.85286719e-01  4.01764326e-02
   2.29857028e-01  2.45071784e-01 -1.53509051e-01 -1.33650109e-01
  -4.54997182e-01 -3.98351736e-02 -4.07457389e-02  1.53619140e-01
  -1.92309096e-01  1.89848423e-01 -4.65962499e-01 -1.02483191e-01]
 [ 3.03899646e-01  6.28748298e-01  3.89340132e-01 -2.85885572e-01
  -1.12481430e-01  3.85841519e-01  8.20745230e-02 -5.59978843e-01
   2.48664722e-01  9.13216397e-02  4.02894020e-02 -2.81462222e-01
  -6.47697210e-01 -2.87132919e-01  7.82358693e-04 -3.69400620e-01]
 [-1.33238599e-01 -3.05996975e-03  2.29721040e-01 -5.29925108e-01
   8.97890031e-02 -3.33572119e-01 -5.28362095e-01  7.00309202e-02
  -1.77847236e-01  1.39507234e-01  5.16591191e-01  3.04415345e-01
   5.05454123e-01  4.10347342e-01  3.18198681e-01 -5.37845902e-02]
 [ 1.38649181e-01  6.70276105e-01  2.33438805e-01 -1.88794121e-01
  -2.16686204e-01  5.01903832e-01 -2.34181628e-01  2.32735306e-01
   2.44597062e-01 -4.82259840e-01 -4.99316335e-01  1.33627206e-01
   4.34585363e-02 -2.03178506e-02  5.79504222e-02 -1.06799260e-01]
 [-1.73466414e-01  5.68946958e-01 -7.01566860e-02  1.36539876e-01
   6.51408494e-01 -2.64263153e-01  2.32763708e-01 -8.88382792e-01
  -1.18420478e-02 -8.92544925e-01 -2.68150102e-02  2.31999621e-01
   3.50857228e-01 -2.73464639e-02 -3.50370377e-01 -5.40904291e-02]
 [ 1.32800981e-01  4.70745325e-01  4.95389402e-01 -2.33106732e-01
   3.55986178e-01 -6.90695941e-01 -6.46597967e-02  1.31854445e-01
  -1.95194453e-01  2.60112733e-01 -2.50229686e-01  1.42918065e-01
   4.72168215e-02 -1.78006366e-01  6.23648614e-02  1.33792654e-01]
 [-1.68840885e-01 -1.41495153e-01  5.44094145e-01  2.99280852e-01
   1.11021139e-01 -6.75260946e-02 -4.00626034e-01 -6.09056912e-02
  -1.05218381e-01  4.16855328e-02  6.79475442e-02  4.06794131e-01
   4.37397100e-02 -1.30722463e-01  3.59109491e-01 -4.63738710e-01]
 [-4.23688263e-01  2.44044706e-01  2.63188154e-01 -1.38743510e-02
  -4.59064990e-01  4.41055633e-02 -3.23722392e-01 -1.71129733e-01
  -3.35705280e-01 -1.78712308e-01 -5.11207320e-02 -1.98552802e-01
   1.22950077e-02 -1.05569646e-01 -4.98577505e-01  1.02068417e-01]
 [-1.28870711e-01  2.20067084e-01  2.44977787e-01 -6.77965134e-02
   1.86352924e-01  3.68554704e-02  2.05873311e-01  3.43982577e-01
  -4.47253101e-02 -7.29775503e-02 -4.45285559e-01 -7.02118397e-01
   1.07019417e-01 -7.90882111e-02  1.32050971e-03 -4.21118975e-01]
 [ 4.54885483e-01 -5.67436159e-01 -5.18785939e-02 -4.35548425e-01
  -3.97443324e-01 -2.76834071e-01 -1.14262126e-01  2.41466518e-02
   3.21594089e-01 -5.88493764e-01 -1.39477417e-01  2.72951812e-01
  -3.50248992e-01  5.65783530e-02  3.97621691e-01 -1.14513546e-01]]
simple_rnn/simple_rnn_cell/bias:0
(16,)
[ 0.14998525  0.12626587  0.08408229 -0.09363658  0.07375375 -0.08622864
 -0.21302725  0.04060517  0.02109259  0.07330408 -0.0254721   0.14323728
  0.10411399 -0.12129249  0.07885928  0.1252136 ]
simple_rnn_1/simple_rnn_cell_1/kernel:0
(16, 32)
[[-3.70836933e-05  1.58093870e-04  3.49631919e-05  3.04093883e-05
   4.66326201e-05  1.45867161e-05  1.57450617e-04 -1.11308889e-02
   1.88395679e-05  9.44660860e-05  1.23848615e-04 -1.85042172e-05
   3.40807019e-04  2.15997788e-04 -3.32520925e-04 -1.96482433e-05
   1.43906145e-04 -7.09751985e-05 -7.94306034e-05  1.07948654e-04
   1.19395190e-04  9.19472077e-05  7.17056537e-05  1.40371994e-04
  -1.66940270e-04  1.23019312e-02 -2.83165991e-06  7.55106157e-07
  -4.09979766e-05 -3.06312199e-04  7.92461651e-06 -1.96956942e-04]
 [ 8.53599195e-05  1.05114086e-04 -2.01490428e-02  2.60558099e-01
  -4.39634034e-03  8.41648143e-05  3.08105991e-05 -2.16678809e-02
  -1.62494616e-05  2.37853304e-02 -4.14034548e-06 -5.34542123e-05
   8.90515803e-05 -3.03547941e-02  5.46822958e-02 -2.14894928e-04
  -3.26058798e-05 -1.25619568e-04  7.24174753e-02  1.85467507e-05
   7.29825988e-05 -2.06105615e-04  1.65676392e-05  4.90120583e-05
  -4.12345871e-05  2.83714235e-02  5.58312468e-06 -2.48926881e-06
   1.38148200e-04  2.72361831e-06  2.20581314e-05 -3.05683861e-05]
 [ 1.56950598e-04 -3.06410977e-04 -1.95641965e-02  3.22328448e-01
  -2.91117141e-03  4.06315739e-05  8.75818223e-05 -7.69121340e-03
  -2.13390995e-05  2.91432217e-02 -5.99497034e-05 -6.98327203e-05
  -4.87399193e-05 -4.20204401e-02  6.69740438e-02  2.95171427e-04
   1.00933554e-04 -1.38965217e-04  7.19328225e-02 -8.51663062e-05
   5.17505177e-05 -2.25895084e-02 -4.32203233e-04 -5.77464525e-05
  -1.77924871e-04  1.44604472e-02  4.87185316e-05  2.40540924e-03
   5.21498951e-05 -4.43963945e-05  4.34269605e-05  1.15785660e-04]
 [ 3.15605896e-04 -1.84864926e-04  3.44610307e-05 -2.76505831e-04
  -1.56894297e-04  1.27855048e-04  1.41960336e-04 -1.46138045e-04
  -5.52134552e-05  1.97578353e-04  5.57257299e-05  2.65715789e-04
   1.16334420e-04  9.90815897e-06 -2.20648843e-04 -9.02795509e-05
  -1.71944208e-04 -3.52997195e-05  4.28419880e-05  9.67476662e-05
   4.71504172e-04 -6.45382388e-05 -4.54940135e-04  1.86297824e-04
  -3.22389795e-04  7.40425094e-06 -1.84383010e-04  7.02289981e-05
   1.28176674e-04 -8.78175488e-05 -2.42438357e-04 -7.71308260e-06]
 [ 1.13083282e-04 -1.29956898e-04 -1.08478833e-02  8.65973160e-02
  -1.31654830e-04  1.26452054e-04  1.48266081e-05 -6.07463553e-05
   5.57916719e-05  3.06207165e-02  1.38178075e-06  4.31943736e-05
   1.28386251e-04 -2.80821733e-02  6.37267455e-02 -2.05020187e-05
  -1.07767308e-04  2.42259732e-04  5.34884930e-02 -1.28966582e-04
  -7.72986750e-05 -1.53750191e-02 -1.15383074e-04 -2.61998503e-06
  -1.05835235e-04 -1.71835691e-05  9.66476437e-05  1.69059858e-05
  -5.00792667e-05  5.34239371e-05  3.13640849e-05 -3.73962939e-05]
 [ 9.71108893e-05  4.76520254e-05 -2.02476367e-04 -4.70674160e-04
   2.06499008e-05 -9.21022147e-05  6.57847486e-05 -3.64325388e-06
   1.68889354e-04  5.98176994e-05  1.19397671e-04 -2.57512147e-05
   2.55563355e-05 -2.04630406e-03  1.06192776e-03  4.04709135e-05
  -1.70857529e-04  1.32227302e-04  1.24026940e-03 -1.80037023e-05
  -7.15713832e-05 -8.98666258e-05  1.47699699e-04 -2.81741850e-05
  -8.45343238e-05  3.11724492e-03  1.41767414e-05  2.25220465e-05
   1.25670776e-05 -8.62513843e-07  9.34615382e-05  2.07591438e-06]
 [ 6.98003932e-05 -6.52537638e-05  1.03282351e-02  3.22382834e-06
  -2.74495178e-05 -1.39966451e-05  1.08488319e-04 -1.46939754e-02
  -2.27439174e-04  1.98467460e-05  1.95327768e-04  1.14408344e-04
   1.96235615e-05  1.50273535e-02 -1.37377884e-02  1.14627714e-04
   2.20665039e-04 -8.92096868e-05  8.20961213e-06 -3.94553135e-05
   1.34800066e-05  2.17544468e-04 -9.47645458e-05 -1.90628271e-05
  -5.43761489e-05 -1.27894731e-04  4.64216646e-05 -1.93457781e-05
  -1.46968610e-04 -1.81087198e-05  4.50751686e-05 -3.09389288e-05]
 [-1.23596055e-05  7.39548050e-05  2.28952151e-02  2.94510653e-04
  -2.41795387e-02 -1.00580211e-04  2.23914307e-04 -5.35288602e-02
   8.26445612e-05 -4.39524092e-03 -5.79658117e-05 -1.00475358e-04
   1.91820363e-04  5.99579699e-02 -2.96177175e-02  3.76183511e-04
  -2.42298920e-05 -1.25338367e-04 -2.65954696e-02 -3.16797406e-04
   4.87724174e-05  3.91839705e-02  3.05340945e-04 -3.43745342e-06
  -7.35731956e-05  2.34053396e-02 -4.24443488e-06  9.55708128e-06
  -1.43282756e-04  1.19250199e-05 -3.92747970e-05  9.72387352e-06]
 [ 2.16587905e-05  3.98859629e-06  7.93931031e-06  5.21689799e-06
  -1.75512824e-02  4.64308214e-05 -6.32585798e-05 -5.27877314e-03
  -4.42426535e-05  1.01586702e-04 -8.53725287e-05  1.41304830e-04
   3.17532918e-04 -4.21191857e-04  7.86453672e-03  2.10553553e-05
  -2.23201525e-04 -4.41680750e-05  8.05490010e-04 -1.69267922e-04
  -1.64444864e-05  9.27609071e-05  2.73518643e-04 -1.17308875e-04
  -1.50058084e-04  1.94338635e-02  1.28420288e-06 -2.73050318e-05
   1.18046533e-04  2.17528155e-04 -3.07444207e-05  2.12274499e-05]
 [-1.56826936e-05  1.47919578e-04 -2.96693557e-04 -2.59818626e-03
  -2.52502803e-02  1.72396409e-04  1.03641076e-04 -2.40517203e-02
  -5.95221100e-05  1.34828901e-02  7.15295664e-06 -1.65405982e-05
   1.79016934e-05 -2.18155119e-03  1.20820841e-02  2.82014080e-04
  -1.48366147e-04 -9.55897340e-05  1.02096099e-04 -9.71727204e-05
  -5.58445026e-06 -1.60305656e-03  7.13089612e-05 -2.59992667e-04
   1.43028738e-04  1.83264334e-02 -5.04043637e-05 -9.94040820e-05
   6.34983589e-05 -4.50501393e-05 -5.69961412e-05  8.35628744e-05]
 [ 2.02308147e-05 -1.69669627e-04 -4.59967305e-05 -6.95904746e-05
  -7.51776097e-05  3.31025716e-04  2.01822579e-04  1.84849923e-05
   1.63807999e-05  9.33767806e-05 -2.55212683e-04  1.24604412e-07
   7.45378638e-05 -2.37157910e-05 -1.71463325e-05 -1.21684498e-04
   3.21349769e-04  3.25971341e-05  1.86667457e-04 -1.69639898e-05
  -1.24950602e-05 -1.12677575e-04  9.07014037e-05  5.72432473e-05
  -1.10586501e-04 -1.29066757e-06  2.24486284e-05 -3.03990455e-05
  -2.01235322e-04  1.52117049e-04 -9.43082923e-05  4.25824292e-05]
 [ 1.68345097e-04  7.91063721e-05  2.26064399e-02 -8.03091004e-02
   4.07496482e-05 -2.42363603e-06  3.73235634e-05 -2.12802552e-02
   2.14124630e-05  1.26941726e-04 -9.05932939e-06 -6.63313258e-05
  -1.16558440e-04  5.50641119e-02 -6.47795480e-03 -2.91427685e-04
   4.08136693e-05  6.04294473e-05 -2.36763633e-04 -4.01944781e-05
   2.91381039e-05  4.21302058e-02 -1.07208776e-04  1.99503083e-05
   7.40388350e-06  3.99717242e-02 -1.13066453e-02 -6.52149180e-03
  -1.77092501e-04 -2.42267977e-02 -2.05587683e-04 -4.64772675e-05]
 [-1.67647013e-05 -1.63968565e-04  4.76013087e-02 -3.74005586e-02
   3.42415497e-02 -2.23258816e-04 -4.13703019e-05 -3.72524038e-02
  -1.88021095e-05 -2.30000038e-02  5.17169610e-05 -3.32026830e-05
   1.08978365e-05  6.02084510e-02 -2.68063322e-02  1.47705330e-04
   8.53457022e-05 -1.00563673e-04 -3.60232708e-03 -9.88982065e-05
  -9.95070513e-06  4.16473821e-02 -1.31703709e-04 -1.10572029e-04
  -7.94903644e-06  2.38563237e-03 -1.28360055e-02 -2.33948231e-03
   8.23481241e-05 -1.46387443e-02 -1.35299430e-04 -6.31450021e-05]
 [-5.81976346e-05 -2.88676849e-04 -1.86057645e-04  7.17627918e-05
  -9.61657497e-05  1.02297039e-04  2.19778885e-04 -2.67765208e-05
  -7.02756006e-06  5.70398697e-07 -8.70880904e-05  1.44401565e-04
   1.33150825e-05  9.00484520e-05  9.17882790e-05 -1.24927610e-04
   2.00668655e-05  2.04155185e-07 -3.49136972e-05 -2.28878853e-05
   2.31196827e-04 -1.27568186e-04 -5.60349872e-05 -4.66033671e-05
  -1.21285055e-04  1.96363602e-04  2.46159208e-04 -6.99666271e-05
   3.10642965e-04 -1.18267577e-04 -1.41593831e-04  3.50761402e-05]
 [-2.59664739e-06 -5.25039432e-05  1.42345149e-02 -7.93142989e-02
  -2.70266291e-02 -6.56376287e-05  5.48806202e-05 -1.49242040e-02
  -7.97111134e-05  3.12327710e-03  2.24093947e-05  9.64117717e-05
  -1.22304657e-04  1.72224082e-02  1.89326547e-05  8.37192783e-05
   4.22714656e-05 -7.35071371e-05 -1.16894720e-04 -3.59438782e-05
  -7.38043163e-05  1.90217160e-02 -7.67803576e-05 -9.72276830e-05
  -4.74691878e-05  2.42613312e-02  4.08322594e-05  4.84512566e-06
  -2.14441825e-05 -3.39623284e-06 -1.40641758e-04 -5.89824049e-06]
 [-7.27680163e-05 -1.38697331e-04  9.96566177e-06 -4.16838593e-05
  -5.94253834e-06  7.83516080e-05  6.22187508e-06 -5.39093162e-05
  -1.02722952e-05  7.73189095e-06 -7.98550900e-07  6.16915495e-05
  -1.99275586e-04 -1.91110416e-06 -1.61240223e-07  4.66093989e-05
   1.63664430e-04 -5.17457465e-06  1.37724974e-05  1.76652014e-04
   5.61202396e-05  1.03737584e-05  4.37373266e-04 -2.84373877e-04
   4.77532703e-05  5.11188846e-05  6.36732148e-06  1.06212101e-04
   1.23978811e-04  4.15294562e-05  2.62422196e-04  8.86945636e-05]]
simple_rnn_1/simple_rnn_cell_1/recurrent_kernel:0
(32, 32)
[[ 0.27025998  0.2853179   0.16688892 ...  0.09669647 -0.04746594
   0.07117069]
 [ 0.337382   -0.21707973 -0.41506523 ...  0.22149798  0.07423571
   0.26401573]
 [ 0.02991634 -0.08471998 -0.0895895  ... -0.19854578 -0.122922
  -0.4854768 ]
 ...
 [ 0.02541394 -0.12068368 -0.04469012 ...  0.2861877  -0.2501564
   0.0766608 ]
 [ 0.3337101  -0.17404382 -0.3416464  ... -0.11818467  0.13328831
  -0.1205734 ]
 [ 0.08427141 -0.13545825  0.3238513  ...  0.0622742  -0.1796285
  -0.1132713 ]]
simple_rnn_1/simple_rnn_cell_1/bias:0
(32,)
[-0.09450225 -0.0627467   0.07498851  0.07696076  0.11080783 -0.09796765
 -0.0457916  -0.08730768  0.04318184 -0.00247795 -0.18523636  0.04621506
 -0.05297011  0.03601585  0.14945081 -0.06983399 -0.10576015 -0.0780853
  0.06914353 -0.08480673 -0.01675246  0.0107801  -0.06848823 -0.1842793
 -0.15246385  0.02832955 -0.04322386  0.05874369 -0.16753836 -0.00411918
 -0.07645258 -0.16592032]
simple_rnn_2/simple_rnn_cell_2/kernel:0
(32, 64)
[[-3.5350240e-07  9.8223441e-05  9.3738599e-06 ...  1.5027719e-05
  -9.4866453e-05 -7.0568218e-05]
 [ 2.0355008e-04 -1.2115865e-04  1.5828401e-04 ...  2.4518039e-04
   1.2681774e-04 -4.8284492e-05]
 [-5.4761649e-06  3.4227196e-02 -8.2936250e-03 ...  2.3854416e-04
  -9.4589684e-03  4.4591282e-02]
 ...
 [ 3.3391421e-05 -2.1111274e-04 -2.4507480e-04 ... -7.2274270e-05
   3.6425248e-05 -4.8196282e-05]
 [-4.6767054e-06  2.3614489e-04  3.6428464e-05 ... -6.3322266e-05
   1.2727888e-04  2.8936345e-05]
 [-5.0649971e-05 -1.6166356e-05  3.1343414e-05 ... -1.6918786e-04
  -2.1930566e-05  1.7142271e-04]]
simple_rnn_2/simple_rnn_cell_2/recurrent_kernel:0
(64, 64)
[[-0.45812565 -0.12392937 -0.06233537 ... -0.01351685 -0.28823966
  -0.17714946]
 [-0.11199374 -0.35772562 -0.4202282  ...  0.16240858 -0.07669567
  -0.00299314]
 [ 0.13266394  0.31186265 -0.21432562 ... -0.05813152  0.31032696
   0.19663684]
 ...
 [-0.10513214  0.03919398 -0.0238894  ... -0.07945725 -0.01056036
   0.04583029]
 [ 0.20444334  0.0170864   0.21044831 ... -0.13633087 -0.17096397
   0.3280702 ]
 [-0.29626304  0.0530103   0.08083783 ... -0.05713661  0.01118126
  -0.2983042 ]]
simple_rnn_2/simple_rnn_cell_2/bias:0
(64,)
[-0.03479988 -0.01889733 -0.04966716 -0.03543002 -0.13604276 -0.10329556
 -0.06372699 -0.05341544  0.00075384 -0.09196717  0.21444468 -0.06347641
 -0.10431956 -0.07529422  0.05393112  0.02349341  0.10826658 -0.06758618
 -0.01727167 -0.07632444 -0.05607421  0.05785118 -0.04444087  0.02306713
 -0.08973141 -0.01201985 -0.03216266  0.03494877 -0.07651976  0.08280778
 -0.0267383  -0.09774472 -0.11581377 -0.16183808 -0.09108721 -0.01479015
 -0.04491324  0.12091022 -0.06655628 -0.12920417 -0.11125825  0.02543219
  0.06524651 -0.04776788 -0.02028147  0.11315161  0.08238768 -0.11878937
 -0.03235827 -0.04326152  0.0118137  -0.09276263 -0.11102964 -0.02427856
 -0.09083442 -0.02977681 -0.10467542 -0.07452605 -0.06926759  0.01541794
 -0.08666795 -0.06422491 -0.0967691   0.18088447]
dense/kernel:0
(64, 128)
[[-0.38465998 -0.00619417  0.24955873 ... -0.08063332 -0.06271191
   0.01138138]
 [ 0.02891493 -0.15614776  0.3033613  ...  0.00713202  0.01114224
   0.52705526]
 [ 0.2849088   0.53176594 -0.40217024 ... -0.48027214  0.68593377
   0.05349518]
 ...
 [ 0.14965716 -0.05577533 -0.01931611 ...  0.08380957  0.11691375
   0.04126352]
 [ 0.568958    0.40851438  0.04296453 ...  0.42995378 -0.33026204
  -0.7528972 ]
 [ 0.16972356 -0.08460265  0.35128865 ...  0.04756239 -0.43664345
  -0.16684641]]
dense/bias:0
(128,)
[ 2.51570612e-01  2.38165304e-01 -4.15590554e-02 -6.89326823e-02
  9.56729800e-02  7.69930780e-02 -6.81202859e-02  1.18491985e-01
 -1.40999444e-02  1.43176496e-01  2.64394935e-02 -1.38328150e-02
 -5.34594804e-02 -4.37117240e-04 -3.17632966e-02 -6.69645220e-02
  3.90908159e-02  1.99971989e-01  9.83030125e-02  3.91180739e-02
 -9.07992050e-02  1.95365578e-01  1.42728195e-01  2.36476555e-01
  9.47788805e-02  8.86614472e-02  1.03188537e-01 -4.76564839e-02
 -7.44813979e-02  5.10827899e-02  1.06264628e-01  1.61241293e-01
  4.68978696e-02 -2.32250616e-02 -5.94046302e-02 -2.03676838e-02
  2.30370864e-01  3.44092473e-02 -1.25423318e-03  6.73051327e-02
  2.03006864e-01 -7.38385245e-02 -2.05968078e-02 -1.65617630e-01
 -1.03325531e-01 -7.67480731e-02  4.95422669e-02  1.99108258e-01
 -1.59382313e-01  2.33853832e-01  1.48052439e-01  3.39639969e-02
  1.79559335e-01 -5.93519174e-02  3.15016918e-02  1.72427043e-01
  9.18900073e-02 -3.08517739e-02 -1.67611271e-01 -9.55558792e-02
 -3.38064916e-02  1.42500252e-01 -5.91436960e-02 -1.19840071e-01
 -7.08856657e-02 -8.96551926e-03  5.49893044e-02  1.87932160e-02
  7.81999826e-02 -4.54398543e-02 -1.61294173e-02  1.34905547e-01
 -6.10106401e-02  1.96620554e-01  1.56481564e-01 -1.23041682e-02
  9.65649113e-02  1.17843375e-01 -3.42300870e-02 -1.92504182e-01
  2.94192526e-02  1.35250896e-01 -1.45484567e-01 -4.72120009e-02
  1.15271896e-01 -6.56570271e-02  2.92266846e-01 -1.37744591e-01
  1.04509406e-01 -1.09654762e-01  1.41372696e-01 -1.22133806e-01
 -1.38229504e-01  3.07025105e-01  1.71583191e-01  2.08768081e-02
 -6.17788956e-02 -6.38775676e-02  3.76194090e-01 -6.32502213e-02
 -3.99687290e-02  1.82146635e-02 -1.10662989e-01 -5.57542704e-02
 -4.58244905e-02 -3.17255184e-02 -3.51251476e-02  5.15188985e-02
 -1.23933870e-02  1.27065778e-01  1.99137017e-01 -4.79518622e-02
 -8.19101334e-02  3.86751480e-02  1.21946894e-01 -2.04123571e-04
  1.54723048e-01 -7.12154806e-02  5.87286912e-02 -5.82811050e-03
  6.94607571e-02 -1.38705941e-02 -1.62348405e-01 -1.06908292e-01
  1.67259648e-01  1.20680645e-01  2.65949182e-02  6.10925145e-02]
dense_1/kernel:0
(128, 64)
[[-0.18045846  0.12895755  0.02508342 ...  0.07217278 -0.12161811
  -0.09688772]
 [-0.14697911  0.38421035 -0.5556477  ... -0.11620128 -0.05207994
  -0.02040485]
 [-0.19193721  0.19172972  0.11940829 ... -0.18760245 -0.16900262
  -0.06932486]
 ...
 [-0.07794488  0.12128471 -0.06194194 ... -0.0229037  -0.20653534
  -0.04496479]
 [-0.12319642  0.00410614 -0.49507797 ... -0.11983435 -0.03545681
  -0.18717308]
 [ 0.14800976  0.07886413 -0.16306588 ... -0.01082049 -0.1958045
  -0.13234083]]
dense_1/bias:0
(64,)
[-0.08292314  0.0276009  -0.14522986  0.28559074  0.24528652 -0.06291837
 -0.06620275 -0.13970943  0.00630379  0.26582417 -0.07039284 -0.0773824
 -0.09774334  0.06947277  0.00498572 -0.16130674 -0.0316602  -0.13899094
  0.12908818  0.25005764 -0.05470984  0.22829778  0.17310652  0.21122062
 -0.03549971 -0.05607969 -0.03173454 -0.03650339 -0.13260095 -0.15785477
  0.26648945  0.02073314  0.2811861   0.20749488 -0.0640458  -0.02498968
  0.06426962  0.09231822  0.15008837  0.10236863 -0.03978372 -0.08538114
  0.09643161 -0.00486927 -0.07605783 -0.05459036 -0.06904998 -0.05299986
 -0.07484253  0.14832573 -0.02651961 -0.0150299  -0.01693331  0.18684803
 -0.06338952 -0.04464085 -0.07612979 -0.09982599 -0.02888126  0.03433486
 -0.01666449 -0.06389195 -0.05754191 -0.03112369]
dense_2/kernel:0
(64, 40)
[[-1.5869516e-01  3.8688011e-02 -8.0855310e-02 ...  1.5497829e-01
  -1.8910734e-02  1.6032569e-01]
 [ 2.2861886e-01  2.0127404e-01 -5.9343380e-01 ... -7.6684093e-01
  -5.4712325e-01 -9.8583829e-01]
 [ 3.5751605e-01  3.6004892e-01  1.0276624e-01 ... -1.2993702e-01
  -1.6417159e-01 -1.2787518e-01]
 ...
 [-1.5178984e-01  2.9212911e-02  1.1801520e-01 ... -8.7309785e-02
  -1.2252771e-01  7.0034206e-04]
 [ 3.6899880e-02 -1.3866861e-01  6.0692906e-02 ... -6.6160865e-02
   1.9212858e-01  1.6605990e-01]
 [ 3.8507938e-02  2.0218602e-01 -1.6352487e-01 ...  1.6925529e-01
   2.1788371e-01 -2.7694643e-02]]
dense_2/bias:0
(40,)
[ 0.1769967  -0.21192874 -0.5267145  -0.3030563   0.33919564 -0.4889479
  0.29719216 -0.5197077  -0.2836705  -0.42840338 -0.5945916  -0.10657147
 -0.45147428 -0.4741949   0.06972059 -0.0796463  -0.59274507 -0.52479136
 -0.62584525 -0.30422825 -0.26068726 -0.54949194 -0.37632775 -0.48749888
 -0.46083665 -0.16889532 -0.71384203 -0.32003805 -0.22406098 -0.5788073
 -0.24049243 -0.52913946 -0.5151658  -0.5675188  -0.25248343 -0.17852831
 -0.1886449  -0.45316532 -0.4604122  -0.59900963]
